{
  "w1": [
    [
      -0.18627499380593862,
      0.5045569842893571,
      -0.18195063956090843,
      0.06384557252885059,
      0.28290546191648885,
      -0.3425070222341241,
      0.03591018029299051,
      0.026383351963939195,
      -0.2563267120832209,
      0.3108134003208567,
      -0.22746386243436323,
      -0.008158061700603516,
      0.362685128834834,
      -0.20261601464664636,
      -0.16435666358324214,
      0.5617390264987137
    ],
    [
      0.636696503531999,
      -0.20619872840186884,
      0.3634108100147391,
      -0.4970371311173388,
      0.32995056222040037,
      -0.09435509795938,
      0.30511730537038995,
      -0.5520195724515394,
      0.10404390337357558,
      0.04267909186236317,
      0.0738015922396305,
      0.23657157594888156,
      0.49844706413872053,
      0.010573324479279883,
      -0.256421909398338,
      0.3428294701682393
    ],
    [
      -0.10946794476975082,
      -0.22727983281238434,
      0.2919772476659799,
      0.5581518989677566,
      0.038987118463169185,
      0.4217734450507344,
      -0.12375792229862956,
      -0.47372445522817574,
      -0.1594882252894848,
      -0.40589655302269906,
      -0.17995162999394904,
      -0.4563371653799882,
      0.4377985517981544,
      -0.3329140911964694,
      -0.45532360030539043,
      0.5923236792756229
    ],
    [
      -0.505344920160495,
      0.18698952167840752,
      -0.001320747451100766,
      -0.4992315487841039,
      -0.4234717590700985,
      -0.015948565728709726,
      0.06302676899008974,
      0.13424775684206847,
      -0.050648104764988086,
      -0.20326664550892531,
      0.020204173325383993,
      0.4093758577209157,
      -0.39538566572079825,
      -0.35304035586182836,
      0.32510928553477064,
      -0.5567402897595486
    ],
    [
      0.054823242193557505,
      0.2677579619510556,
      -0.24697528047374753,
      0.08317488162714194,
      0.7047163217724507,
      -0.42943530536768204,
      -0.16156649849619623,
      0.15841662975902113,
      0.0009398972577563528,
      0.34950768046541736,
      0.6890881706983405,
      0.005095460069396409,
      -0.024672990754455646,
      0.43108342688578555,
      -0.09663632254649764,
      -0.6614946378463166
    ],
    [
      0.22079031556530906,
      0.11477044394836027,
      0.21641233135788487,
      0.11546800977426798,
      -0.02083523238357565,
      -0.16283119309805694,
      -0.15454859661579026,
      0.09567064342732201,
      0.05604248937810642,
      0.3320278364523317,
      -0.006180013778633403,
      -0.04898363456136565,
      0.016597269443848102,
      0.013231377703371095,
      -0.06916095250929473,
      0.045197232351074486
    ],
    [
      -0.1376825352011738,
      -0.1568642696334494,
      0.14571983693914828,
      -0.03137978925641456,
      0.06225372021076819,
      -0.009621349136927358,
      0.1598531189483099,
      -0.007002159707341419,
      -0.01204566680692166,
      -0.19140326310484213,
      0.1274579687121566,
      -0.06506518172317578,
      0.09655762040730033,
      0.09860741751653757,
      -0.08934526627750829,
      -0.07753714796974173
    ],
    [
      -0.638055878795841,
      0.39394027164690243,
      -0.08258555204141979,
      0.17636423152534955,
      0.3428990544411137,
      0.027693667984002756,
      0.33462548127014635,
      -0.06184677280468077,
      -0.04611778004139305,
      -0.22333378376851232,
      -0.06866637778737343,
      0.2805782577336433,
      -0.4496893600050335,
      -0.30732601275907384,
      0.16810287762607615,
      -0.39957840024057717
    ],
    [
      0.07278764144632599,
      -0.08540270069359003,
      -0.3167320259586703,
      0.015316960573140123,
      0.034297202184782716,
      0.12990795589594742,
      -0.11594922271600742,
      -0.16552176382967312,
      -0.05180016616544076,
      -0.07405551772028338,
      -0.1221356500568334,
      0.04113920821291807,
      0.12814502623041515,
      -0.17748152615224996,
      0.07370414011484781,
      0.03163185729259711
    ],
    [
      0.383873023383653,
      -0.04336392881559744,
      -0.15276006708297057,
      0.07227429044888477,
      0.15876697945174534,
      0.4795217192636084,
      0.6381890979988202,
      0.23038440025043358,
      -0.3392204303172662,
      -0.5491280479396204,
      -0.3568948204441062,
      -0.1850403615055163,
      -0.07035381225736853,
      -0.24245874108356408,
      -0.12297802069300598,
      -0.4532467673053858
    ],
    [
      0.2028949547481257,
      -0.09899347873589394,
      -0.16158402592473092,
      -0.15809848839138477,
      -0.23311252256518253,
      -0.4069839121248409,
      0.3861477973826372,
      -0.17393058181627,
      -0.3625069775528335,
      0.38504875475151334,
      0.44906354912464913,
      0.3237491041227093,
      0.5687373809558233,
      -0.30598597239080283,
      0.19255564370370756,
      -0.1345194799179787
    ],
    [
      -0.032290379761609575,
      0.48799820069910926,
      -0.05504100919622439,
      0.3836917590419683,
      0.3997933090379007,
      -0.1335927006191304,
      0.1893789829398979,
      0.41009845762264935,
      -0.08549547280588729,
      -0.10541522596572386,
      0.40079998087705665,
      0.4143603143996073,
      -0.3586856922970406,
      -0.36018141667146525,
      -0.12376161743757479,
      0.24016202757966953
    ]
  ],
  "b1": [
    -0.2396928987633711,
    0.0543273145671705,
    0.5577697369928691,
    0.18944602559846938,
    -0.06290823284566131,
    0.055416270798740494,
    -0.195210805886124,
    0.3524955510900023,
    0.6915666276387291,
    -0.03770335755253297,
    0.14368170048119086,
    -0.13004719303444895,
    -0.06839940885822993,
    0.45808640984661914,
    -0.14753631111696047,
    0.22351867124787658
  ],
  "w2": [
    [
      -0.4521515008281785,
      -0.09100248849488342,
      0.005794079407518625,
      0.1026529487956088,
      -0.20727714010257817,
      -0.9783982127383403,
      -0.19337683209093717,
      0.4992238591243979
    ],
    [
      0.2608428197836013,
      0.38681250420827984,
      0.4498098678918025,
      0.358459946409686,
      -0.01398664091020502,
      0.34602244004382077,
      -0.31687202968698003,
      0.2984249862045991
    ],
    [
      0.4593820890307724,
      0.29894784876726416,
      -0.19236514307869845,
      -0.21380603055053524,
      0.19851748821030157,
      -0.6866166230611291,
      0.036071164628576374,
      -0.5080070119959078
    ],
    [
      -0.381118123335581,
      0.2660637594698481,
      -0.1531369435319232,
      -0.7145251242229491,
      -0.02609883768428793,
      -0.3224050458943651,
      -0.25276973042568707,
      0.2450679578686811
    ],
    [
      0.23153078126889426,
      -0.496440167609622,
      0.1951049791800118,
      0.623553900902203,
      -0.13277508172076058,
      -0.0012203076977290407,
      0.16112555593861574,
      -0.06232952110506207
    ],
    [
      -0.020934862711715747,
      0.33185230882762695,
      0.05439585312156518,
      -0.3123977314199456,
      0.30207733184279745,
      -1.8400607450126412,
      0.5038209676475339,
      -0.1541163220958293
    ],
    [
      0.10310779611711764,
      -0.32452249510512066,
      -0.133616006376407,
      -0.20480137026572107,
      0.4053482135180507,
      0.13555337771241682,
      0.4429664489754999,
      -0.224577810019142
    ],
    [
      -0.2164439704515597,
      0.08378582987078978,
      -0.12194329637661763,
      -0.24473931574133675,
      -0.17417394199722397,
      -0.3050224448593996,
      0.3384052640876598,
      0.026147184769689736
    ],
    [
      -0.3620123777589324,
      -0.23514715414742013,
      -0.15070945653527543,
      -0.302967734594296,
      0.4158523720921839,
      0.44023471479643017,
      0.3118841143592423,
      0.505324686574839
    ],
    [
      0.13545933893112244,
      -0.014974693341424195,
      0.3773634173385395,
      0.4142431485632095,
      0.10452963242612374,
      0.30978534539736785,
      0.1706910499312165,
      -0.030680992512152207
    ],
    [
      0.46922027641076336,
      0.1625089177081003,
      0.42641036299759005,
      0.4256960046129437,
      -0.15706084409151483,
      0.2913067492172174,
      -0.22250145095031873,
      0.12058183981284534
    ],
    [
      0.6094746559993534,
      0.023885227148324206,
      0.3693937696040952,
      -0.11798540157503729,
      -0.2255056077229777,
      0.04155368075855613,
      -0.32418429752016487,
      -0.05445771445063223
    ],
    [
      0.5345757089123264,
      0.10991106117110466,
      0.5371446175225931,
      0.1693353598895812,
      0.396099183080306,
      0.5358963937860831,
      0.5561709599395481,
      -0.33010450529909247
    ],
    [
      -0.2904751836538187,
      -0.16160826027525543,
      0.2822021016758608,
      -0.07038316725841784,
      0.2569159791999607,
      -1.1989921682767966,
      0.28444658453173943,
      0.20467670626924
    ],
    [
      -0.15289816444672813,
      0.009416229867566158,
      0.1718773222398255,
      -0.10522319226545092,
      0.41013561418988403,
      -0.15254907388712205,
      -0.06817235150595785,
      0.423635464138557
    ],
    [
      0.22629286803795137,
      0.2645304972035057,
      0.09125509036992842,
      -1.2330964844445058,
      -0.1654109225457788,
      -0.6673787694863286,
      0.3473397495979662,
      -0.2877711913977303
    ]
  ],
  "b2": [
    0.08033009619598785,
    0.15448358213444383,
    0.21881675266984665,
    0.24590086428561306,
    0.12873545989045043,
    -0.005607166653787213,
    0.19339331035123078,
    0.19406300011901367
  ],
  "w3": [
    [
      0.207915835863916
    ],
    [
      -0.32290714755708405
    ],
    [
      0.26084663907652395
    ],
    [
      0.4125665654148624
    ],
    [
      -0.13381486465660603
    ],
    [
      0.48254997727324184
    ],
    [
      -0.23396929306332548
    ],
    [
      -0.27771389289036874
    ]
  ],
  "b3": [
    0.16116085242702466
  ],
  "featureMeans": [
    5224.29725091626,
    1.949,
    0.4105,
    0.348,
    0.2415,
    4.0195,
    2.467,
    0.204,
    0.3615,
    1.765,
    10218.157880771792,
    8.373378183123402
  ],
  "featureStds": [
    2692.4836966679786,
    0.7123194508084255,
    0.4919245368956539,
    0.4763360158543531,
    0.4279926985358537,
    1.4188445122704527,
    1.1224575715812197,
    0.4029689814365346,
    0.4804349591776202,
    0.7285430666748507,
    6827.117302136277,
    0.6841779671257342
  ],
  "targetMean": 59068509.13966794,
  "targetStd": 53539096.91941046
}